digraph Tree {
node [shape=box] ;
0 [label="X[12] <= 1.5\ngini = 0.1286\nsamples = 438\nvalue = [[361, 77]\n[399, 39]\n[420, 18]\n[419, 19]\n[379, 59]\n[405, 33]\n[418, 20]\n[419, 19]\n[419, 19]\n[374, 64]\n[421, 17]\n[420, 18]\n[419, 19]\n[421, 17]]"] ;
1 [label="X[20] <= 1.5\ngini = 0.1252\nsamples = 179\nvalue = [[179, 0]\n[140, 39]\n[170, 9]\n[164, 15]\n[179, 0]\n[154, 25]\n[159, 20]\n[160, 19]\n[170, 9]\n[179, 0]\n[179, 0]\n[161, 18]\n[171, 8]\n[162, 17]]"] ;
0 -> 1 [labeldistance=2.5, labelangle=45, headlabel="True"] ;
2 [label="X[25] <= 0.5\ngini = 0.1225\nsamples = 121\nvalue = [[121, 0]\n[121, 0]\n[112, 9]\n[106, 15]\n[121, 0]\n[96, 25]\n[101, 20]\n[121, 0]\n[112, 9]\n[121, 0]\n[121, 0]\n[103, 18]\n[113, 8]\n[104, 17]]"] ;
1 -> 2 ;
3 [label="X[20] <= 0.5\ngini = 0.1165\nsamples = 76\nvalue = [[76, 0]\n[76, 0]\n[67, 9]\n[61, 15]\n[76, 0]\n[76, 0]\n[76, 0]\n[76, 0]\n[67, 9]\n[76, 0]\n[76, 0]\n[58, 18]\n[68, 8]\n[59, 17]]"] ;
2 -> 3 ;
4 [label="X[13] <= 1.5\ngini = 0.1111\nsamples = 59\nvalue = [[59, 0]\n[59, 0]\n[50, 9]\n[44, 15]\n[59, 0]\n[59, 0]\n[59, 0]\n[59, 0]\n[50, 9]\n[59, 0]\n[59, 0]\n[41, 18]\n[51, 8]\n[59, 0]]"] ;
3 -> 4 ;
5 [label="X[14] <= 0.5\ngini = 0.0921\nsamples = 33\nvalue = [[33, 0]\n[33, 0]\n[24, 9]\n[18, 15]\n[33, 0]\n[33, 0]\n[33, 0]\n[33, 0]\n[24, 9]\n[33, 0]\n[33, 0]\n[33, 0]\n[33, 0]\n[33, 0]]"] ;
4 -> 5 ;
6 [label="X[13] <= 0.5\ngini = 0.067\nsamples = 24\nvalue = [[24, 0]\n[24, 0]\n[15, 9]\n[9, 15]\n[24, 0]\n[24, 0]\n[24, 0]\n[24, 0]\n[24, 0]\n[24, 0]\n[24, 0]\n[24, 0]\n[24, 0]\n[24, 0]]"] ;
5 -> 6 ;
7 [label="X[32] <= 0.5\ngini = 0.0425\nsamples = 11\nvalue = [[11, 0]\n[11, 0]\n[2, 9]\n[9, 2]\n[11, 0]\n[11, 0]\n[11, 0]\n[11, 0]\n[11, 0]\n[11, 0]\n[11, 0]\n[11, 0]\n[11, 0]\n[11, 0]]"] ;
6 -> 7 ;
8 [label="gini = 0.0\nsamples = 9\nvalue = [[9, 0]\n[9, 0]\n[0, 9]\n[9, 0]\n[9, 0]\n[9, 0]\n[9, 0]\n[9, 0]\n[9, 0]\n[9, 0]\n[9, 0]\n[9, 0]\n[9, 0]\n[9, 0]]"] ;
7 -> 8 ;
9 [label="gini = 0.0\nsamples = 2\nvalue = [[2, 0]\n[2, 0]\n[2, 0]\n[0, 2]\n[2, 0]\n[2, 0]\n[2, 0]\n[2, 0]\n[2, 0]\n[2, 0]\n[2, 0]\n[2, 0]\n[2, 0]\n[2, 0]]"] ;
7 -> 9 ;
10 [label="gini = 0.0\nsamples = 13\nvalue = [[13, 0]\n[13, 0]\n[13, 0]\n[0, 13]\n[13, 0]\n[13, 0]\n[13, 0]\n[13, 0]\n[13, 0]\n[13, 0]\n[13, 0]\n[13, 0]\n[13, 0]\n[13, 0]]"] ;
6 -> 10 ;
11 [label="gini = 0.0\nsamples = 9\nvalue = [[9, 0]\n[9, 0]\n[9, 0]\n[9, 0]\n[9, 0]\n[9, 0]\n[9, 0]\n[9, 0]\n[0, 9]\n[9, 0]\n[9, 0]\n[9, 0]\n[9, 0]\n[9, 0]]"] ;
5 -> 11 ;
12 [label="X[31] <= 0.5\ngini = 0.0609\nsamples = 26\nvalue = [[26, 0]\n[26, 0]\n[26, 0]\n[26, 0]\n[26, 0]\n[26, 0]\n[26, 0]\n[26, 0]\n[26, 0]\n[26, 0]\n[26, 0]\n[8, 18]\n[18, 8]\n[26, 0]]"] ;
4 -> 12 ;
13 [label="gini = 0.0\nsamples = 18\nvalue = [[18, 0]\n[18, 0]\n[18, 0]\n[18, 0]\n[18, 0]\n[18, 0]\n[18, 0]\n[18, 0]\n[18, 0]\n[18, 0]\n[18, 0]\n[0, 18]\n[18, 0]\n[18, 0]]"] ;
12 -> 13 ;
14 [label="gini = 0.0\nsamples = 8\nvalue = [[8, 0]\n[8, 0]\n[8, 0]\n[8, 0]\n[8, 0]\n[8, 0]\n[8, 0]\n[8, 0]\n[8, 0]\n[8, 0]\n[8, 0]\n[8, 0]\n[0, 8]\n[8, 0]]"] ;
12 -> 14 ;
15 [label="gini = 0.0\nsamples = 17\nvalue = [[17, 0]\n[17, 0]\n[17, 0]\n[17, 0]\n[17, 0]\n[17, 0]\n[17, 0]\n[17, 0]\n[17, 0]\n[17, 0]\n[17, 0]\n[17, 0]\n[17, 0]\n[0, 17]]"] ;
3 -> 15 ;
16 [label="X[26] <= 0.5\ngini = 0.0705\nsamples = 45\nvalue = [[45, 0]\n[45, 0]\n[45, 0]\n[45, 0]\n[45, 0]\n[20, 25]\n[25, 20]\n[45, 0]\n[45, 0]\n[45, 0]\n[45, 0]\n[45, 0]\n[45, 0]\n[45, 0]]"] ;
2 -> 16 ;
17 [label="gini = 0.0\nsamples = 25\nvalue = [[25, 0]\n[25, 0]\n[25, 0]\n[25, 0]\n[25, 0]\n[0, 25]\n[25, 0]\n[25, 0]\n[25, 0]\n[25, 0]\n[25, 0]\n[25, 0]\n[25, 0]\n[25, 0]]"] ;
16 -> 17 ;
18 [label="gini = 0.0\nsamples = 20\nvalue = [[20, 0]\n[20, 0]\n[20, 0]\n[20, 0]\n[20, 0]\n[20, 0]\n[0, 20]\n[20, 0]\n[20, 0]\n[20, 0]\n[20, 0]\n[20, 0]\n[20, 0]\n[20, 0]]"] ;
16 -> 18 ;
19 [label="X[28] <= 3.0\ngini = 0.0629\nsamples = 58\nvalue = [[58, 0]\n[19, 39]\n[58, 0]\n[58, 0]\n[58, 0]\n[58, 0]\n[58, 0]\n[39, 19]\n[58, 0]\n[58, 0]\n[58, 0]\n[58, 0]\n[58, 0]\n[58, 0]]"] ;
1 -> 19 ;
20 [label="gini = 0.0\nsamples = 39\nvalue = [[39, 0]\n[0, 39]\n[39, 0]\n[39, 0]\n[39, 0]\n[39, 0]\n[39, 0]\n[39, 0]\n[39, 0]\n[39, 0]\n[39, 0]\n[39, 0]\n[39, 0]\n[39, 0]]"] ;
19 -> 20 ;
21 [label="gini = 0.0\nsamples = 19\nvalue = [[19, 0]\n[19, 0]\n[19, 0]\n[19, 0]\n[19, 0]\n[19, 0]\n[19, 0]\n[0, 19]\n[19, 0]\n[19, 0]\n[19, 0]\n[19, 0]\n[19, 0]\n[19, 0]]"] ;
19 -> 21 ;
22 [label="X[23] <= 0.5\ngini = 0.1127\nsamples = 259\nvalue = [[182, 77]\n[259, 0]\n[250, 9]\n[255, 4]\n[200, 59]\n[251, 8]\n[259, 0]\n[259, 0]\n[249, 10]\n[195, 64]\n[242, 17]\n[259, 0]\n[248, 11]\n[259, 0]]"] ;
0 -> 22 [labeldistance=2.5, labelangle=-45, headlabel="False"] ;
23 [label="X[0] <= 3.5\ngini = 0.1114\nsamples = 214\nvalue = [[137, 77]\n[214, 0]\n[205, 9]\n[210, 4]\n[160, 54]\n[206, 8]\n[214, 0]\n[214, 0]\n[204, 10]\n[190, 24]\n[197, 17]\n[214, 0]\n[203, 11]\n[214, 0]]"] ;
22 -> 23 ;
24 [label="X[2] <= 1.5\ngini = 0.097\nsamples = 83\nvalue = [[80, 3]\n[83, 0]\n[80, 3]\n[79, 4]\n[40, 43]\n[80, 3]\n[83, 0]\n[83, 0]\n[78, 5]\n[77, 6]\n[67, 16]\n[83, 0]\n[83, 0]\n[83, 0]]"] ;
23 -> 24 ;
25 [label="X[25] <= 0.5\ngini = 0.088\nsamples = 29\nvalue = [[29, 0]\n[29, 0]\n[29, 0]\n[26, 3]\n[22, 7]\n[26, 3]\n[29, 0]\n[29, 0]\n[29, 0]\n[29, 0]\n[13, 16]\n[29, 0]\n[29, 0]\n[29, 0]]"] ;
24 -> 25 ;
26 [label="X[14] <= 0.5\ngini = 0.0765\nsamples = 26\nvalue = [[26, 0]\n[26, 0]\n[26, 0]\n[23, 3]\n[19, 7]\n[26, 0]\n[26, 0]\n[26, 0]\n[26, 0]\n[26, 0]\n[10, 16]\n[26, 0]\n[26, 0]\n[26, 0]]"] ;
25 -> 26 ;
27 [label="gini = 0.0\nsamples = 3\nvalue = [[3, 0]\n[3, 0]\n[3, 0]\n[0, 3]\n[3, 0]\n[3, 0]\n[3, 0]\n[3, 0]\n[3, 0]\n[3, 0]\n[3, 0]\n[3, 0]\n[3, 0]\n[3, 0]]"] ;
26 -> 27 ;
28 [label="X[0] <= 0.5\ngini = 0.0605\nsamples = 23\nvalue = [[23, 0]\n[23, 0]\n[23, 0]\n[23, 0]\n[16, 7]\n[23, 0]\n[23, 0]\n[23, 0]\n[23, 0]\n[23, 0]\n[7, 16]\n[23, 0]\n[23, 0]\n[23, 0]]"] ;
26 -> 28 ;
29 [label="gini = 0.0\nsamples = 3\nvalue = [[3, 0]\n[3, 0]\n[3, 0]\n[3, 0]\n[0, 3]\n[3, 0]\n[3, 0]\n[3, 0]\n[3, 0]\n[3, 0]\n[3, 0]\n[3, 0]\n[3, 0]\n[3, 0]]"] ;
28 -> 29 ;
30 [label="X[9] <= 1.5\ngini = 0.0457\nsamples = 20\nvalue = [[20, 0]\n[20, 0]\n[20, 0]\n[20, 0]\n[16, 4]\n[20, 0]\n[20, 0]\n[20, 0]\n[20, 0]\n[20, 0]\n[4, 16]\n[20, 0]\n[20, 0]\n[20, 0]]"] ;
28 -> 30 ;
31 [label="gini = 0.0\nsamples = 10\nvalue = [[10, 0]\n[10, 0]\n[10, 0]\n[10, 0]\n[10, 0]\n[10, 0]\n[10, 0]\n[10, 0]\n[10, 0]\n[10, 0]\n[0, 10]\n[10, 0]\n[10, 0]\n[10, 0]]"] ;
30 -> 31 ;
32 [label="X[6] <= 2.5\ngini = 0.0686\nsamples = 10\nvalue = [[10, 0]\n[10, 0]\n[10, 0]\n[10, 0]\n[6, 4]\n[10, 0]\n[10, 0]\n[10, 0]\n[10, 0]\n[10, 0]\n[4, 6]\n[10, 0]\n[10, 0]\n[10, 0]]"] ;
30 -> 32 ;
33 [label="X[0] <= 2.5\ngini = 0.0635\nsamples = 6\nvalue = [[6, 0]\n[6, 0]\n[6, 0]\n[6, 0]\n[2, 4]\n[6, 0]\n[6, 0]\n[6, 0]\n[6, 0]\n[6, 0]\n[4, 2]\n[6, 0]\n[6, 0]\n[6, 0]]"] ;
32 -> 33 ;
34 [label="X[6] <= 1.0\ngini = 0.0457\nsamples = 5\nvalue = [[5, 0]\n[5, 0]\n[5, 0]\n[5, 0]\n[1, 4]\n[5, 0]\n[5, 0]\n[5, 0]\n[5, 0]\n[5, 0]\n[4, 1]\n[5, 0]\n[5, 0]\n[5, 0]]"] ;
33 -> 34 ;
35 [label="X[0] <= 1.5\ngini = 0.0714\nsamples = 2\nvalue = [[2, 0]\n[2, 0]\n[2, 0]\n[2, 0]\n[1, 1]\n[2, 0]\n[2, 0]\n[2, 0]\n[2, 0]\n[2, 0]\n[1, 1]\n[2, 0]\n[2, 0]\n[2, 0]]"] ;
34 -> 35 ;
36 [label="gini = 0.0\nsamples = 1\nvalue = [[1, 0]\n[1, 0]\n[1, 0]\n[1, 0]\n[0, 1]\n[1, 0]\n[1, 0]\n[1, 0]\n[1, 0]\n[1, 0]\n[1, 0]\n[1, 0]\n[1, 0]\n[1, 0]]"] ;
35 -> 36 ;
37 [label="gini = 0.0\nsamples = 1\nvalue = [[1, 0]\n[1, 0]\n[1, 0]\n[1, 0]\n[1, 0]\n[1, 0]\n[1, 0]\n[1, 0]\n[1, 0]\n[1, 0]\n[0, 1]\n[1, 0]\n[1, 0]\n[1, 0]]"] ;
35 -> 37 ;
38 [label="gini = 0.0\nsamples = 3\nvalue = [[3, 0]\n[3, 0]\n[3, 0]\n[3, 0]\n[0, 3]\n[3, 0]\n[3, 0]\n[3, 0]\n[3, 0]\n[3, 0]\n[3, 0]\n[3, 0]\n[3, 0]\n[3, 0]]"] ;
34 -> 38 ;
39 [label="gini = 0.0\nsamples = 1\nvalue = [[1, 0]\n[1, 0]\n[1, 0]\n[1, 0]\n[1, 0]\n[1, 0]\n[1, 0]\n[1, 0]\n[1, 0]\n[1, 0]\n[0, 1]\n[1, 0]\n[1, 0]\n[1, 0]]"] ;
33 -> 39 ;
40 [label="gini = 0.0\nsamples = 4\nvalue = [[4, 0]\n[4, 0]\n[4, 0]\n[4, 0]\n[4, 0]\n[4, 0]\n[4, 0]\n[4, 0]\n[4, 0]\n[4, 0]\n[0, 4]\n[4, 0]\n[4, 0]\n[4, 0]]"] ;
32 -> 40 ;
41 [label="gini = 0.0\nsamples = 3\nvalue = [[3, 0]\n[3, 0]\n[3, 0]\n[3, 0]\n[3, 0]\n[0, 3]\n[3, 0]\n[3, 0]\n[3, 0]\n[3, 0]\n[3, 0]\n[3, 0]\n[3, 0]\n[3, 0]]"] ;
25 -> 41 ;
42 [label="X[17] <= 1.0\ngini = 0.0754\nsamples = 54\nvalue = [[51, 3]\n[54, 0]\n[51, 3]\n[53, 1]\n[18, 36]\n[54, 0]\n[54, 0]\n[54, 0]\n[49, 5]\n[48, 6]\n[54, 0]\n[54, 0]\n[54, 0]\n[54, 0]]"] ;
24 -> 42 ;
43 [label="X[0] <= 2.5\ngini = 0.0625\nsamples = 49\nvalue = [[46, 3]\n[49, 0]\n[46, 3]\n[48, 1]\n[13, 36]\n[49, 0]\n[49, 0]\n[49, 0]\n[49, 0]\n[43, 6]\n[49, 0]\n[49, 0]\n[49, 0]\n[49, 0]]"] ;
42 -> 43 ;
44 [label="gini = 0.0\nsamples = 25\nvalue = [[25, 0]\n[25, 0]\n[25, 0]\n[25, 0]\n[0, 25]\n[25, 0]\n[25, 0]\n[25, 0]\n[25, 0]\n[25, 0]\n[25, 0]\n[25, 0]\n[25, 0]\n[25, 0]]"] ;
43 -> 44 ;
45 [label="X[20] <= 1.5\ngini = 0.0992\nsamples = 24\nvalue = [[21, 3]\n[24, 0]\n[21, 3]\n[23, 1]\n[13, 11]\n[24, 0]\n[24, 0]\n[24, 0]\n[24, 0]\n[18, 6]\n[24, 0]\n[24, 0]\n[24, 0]\n[24, 0]]"] ;
43 -> 45 ;
46 [label="X[14] <= 0.5\ngini = 0.1054\nsamples = 15\nvalue = [[12, 3]\n[15, 0]\n[12, 3]\n[14, 1]\n[13, 2]\n[15, 0]\n[15, 0]\n[15, 0]\n[15, 0]\n[9, 6]\n[15, 0]\n[15, 0]\n[15, 0]\n[15, 0]]"] ;
45 -> 46 ;
47 [label="X[13] <= 0.5\ngini = 0.0536\nsamples = 4\nvalue = [[4, 0]\n[4, 0]\n[1, 3]\n[3, 1]\n[4, 0]\n[4, 0]\n[4, 0]\n[4, 0]\n[4, 0]\n[4, 0]\n[4, 0]\n[4, 0]\n[4, 0]\n[4, 0]]"] ;
46 -> 47 ;
48 [label="gini = 0.0\nsamples = 3\nvalue = [[3, 0]\n[3, 0]\n[0, 3]\n[3, 0]\n[3, 0]\n[3, 0]\n[3, 0]\n[3, 0]\n[3, 0]\n[3, 0]\n[3, 0]\n[3, 0]\n[3, 0]\n[3, 0]]"] ;
47 -> 48 ;
49 [label="gini = 0.0\nsamples = 1\nvalue = [[1, 0]\n[1, 0]\n[1, 0]\n[0, 1]\n[1, 0]\n[1, 0]\n[1, 0]\n[1, 0]\n[1, 0]\n[1, 0]\n[1, 0]\n[1, 0]\n[1, 0]\n[1, 0]]"] ;
47 -> 49 ;
50 [label="X[15] <= 0.5\ngini = 0.085\nsamples = 11\nvalue = [[8, 3]\n[11, 0]\n[11, 0]\n[11, 0]\n[9, 2]\n[11, 0]\n[11, 0]\n[11, 0]\n[11, 0]\n[5, 6]\n[11, 0]\n[11, 0]\n[11, 0]\n[11, 0]]"] ;
46 -> 50 ;
51 [label="X[6] <= 2.5\ngini = 0.0771\nsamples = 10\nvalue = [[7, 3]\n[10, 0]\n[10, 0]\n[10, 0]\n[9, 1]\n[10, 0]\n[10, 0]\n[10, 0]\n[10, 0]\n[4, 6]\n[10, 0]\n[10, 0]\n[10, 0]\n[10, 0]]"] ;
50 -> 51 ;
52 [label="X[8] <= 0.5\ngini = 0.0635\nsamples = 9\nvalue = [[6, 3]\n[9, 0]\n[9, 0]\n[9, 0]\n[9, 0]\n[9, 0]\n[9, 0]\n[9, 0]\n[9, 0]\n[3, 6]\n[9, 0]\n[9, 0]\n[9, 0]\n[9, 0]]"] ;
51 -> 52 ;
53 [label="X[5] <= 0.5\ngini = 0.0536\nsamples = 8\nvalue = [[6, 2]\n[8, 0]\n[8, 0]\n[8, 0]\n[8, 0]\n[8, 0]\n[8, 0]\n[8, 0]\n[8, 0]\n[2, 6]\n[8, 0]\n[8, 0]\n[8, 0]\n[8, 0]]"] ;
52 -> 53 ;
54 [label="X[4] <= 0.5\ngini = 0.0635\nsamples = 3\nvalue = [[1, 2]\n[3, 0]\n[3, 0]\n[3, 0]\n[3, 0]\n[3, 0]\n[3, 0]\n[3, 0]\n[3, 0]\n[2, 1]\n[3, 0]\n[3, 0]\n[3, 0]\n[3, 0]]"] ;
53 -> 54 ;
55 [label="gini = 0.0\nsamples = 2\nvalue = [[0, 2]\n[2, 0]\n[2, 0]\n[2, 0]\n[2, 0]\n[2, 0]\n[2, 0]\n[2, 0]\n[2, 0]\n[2, 0]\n[2, 0]\n[2, 0]\n[2, 0]\n[2, 0]]"] ;
54 -> 55 ;
56 [label="gini = 0.0\nsamples = 1\nvalue = [[1, 0]\n[1, 0]\n[1, 0]\n[1, 0]\n[1, 0]\n[1, 0]\n[1, 0]\n[1, 0]\n[1, 0]\n[0, 1]\n[1, 0]\n[1, 0]\n[1, 0]\n[1, 0]]"] ;
54 -> 56 ;
57 [label="gini = 0.0\nsamples = 5\nvalue = [[5, 0]\n[5, 0]\n[5, 0]\n[5, 0]\n[5, 0]\n[5, 0]\n[5, 0]\n[5, 0]\n[5, 0]\n[0, 5]\n[5, 0]\n[5, 0]\n[5, 0]\n[5, 0]]"] ;
53 -> 57 ;
58 [label="gini = 0.0\nsamples = 1\nvalue = [[0, 1]\n[1, 0]\n[1, 0]\n[1, 0]\n[1, 0]\n[1, 0]\n[1, 0]\n[1, 0]\n[1, 0]\n[1, 0]\n[1, 0]\n[1, 0]\n[1, 0]\n[1, 0]]"] ;
52 -> 58 ;
59 [label="gini = 0.0\nsamples = 1\nvalue = [[1, 0]\n[1, 0]\n[1, 0]\n[1, 0]\n[0, 1]\n[1, 0]\n[1, 0]\n[1, 0]\n[1, 0]\n[1, 0]\n[1, 0]\n[1, 0]\n[1, 0]\n[1, 0]]"] ;
51 -> 59 ;
60 [label="gini = 0.0\nsamples = 1\nvalue = [[1, 0]\n[1, 0]\n[1, 0]\n[1, 0]\n[0, 1]\n[1, 0]\n[1, 0]\n[1, 0]\n[1, 0]\n[1, 0]\n[1, 0]\n[1, 0]\n[1, 0]\n[1, 0]]"] ;
50 -> 60 ;
61 [label="gini = 0.0\nsamples = 9\nvalue = [[9, 0]\n[9, 0]\n[9, 0]\n[9, 0]\n[0, 9]\n[9, 0]\n[9, 0]\n[9, 0]\n[9, 0]\n[9, 0]\n[9, 0]\n[9, 0]\n[9, 0]\n[9, 0]]"] ;
45 -> 61 ;
62 [label="gini = 0.0\nsamples = 5\nvalue = [[5, 0]\n[5, 0]\n[5, 0]\n[5, 0]\n[5, 0]\n[5, 0]\n[5, 0]\n[5, 0]\n[0, 5]\n[5, 0]\n[5, 0]\n[5, 0]\n[5, 0]\n[5, 0]]"] ;
42 -> 62 ;
63 [label="X[21] <= 0.5\ngini = 0.0918\nsamples = 131\nvalue = [[57, 74]\n[131, 0]\n[125, 6]\n[131, 0]\n[120, 11]\n[126, 5]\n[131, 0]\n[131, 0]\n[126, 5]\n[113, 18]\n[130, 1]\n[131, 0]\n[120, 11]\n[131, 0]]"] ;
23 -> 63 ;
64 [label="X[14] <= 0.5\ngini = 0.0633\nsamples = 102\nvalue = [[28, 74]\n[102, 0]\n[96, 6]\n[102, 0]\n[102, 0]\n[102, 0]\n[102, 0]\n[102, 0]\n[97, 5]\n[86, 16]\n[101, 1]\n[102, 0]\n[102, 0]\n[102, 0]]"] ;
63 -> 64 ;
65 [label="gini = 0.0\nsamples = 6\nvalue = [[6, 0]\n[6, 0]\n[0, 6]\n[6, 0]\n[6, 0]\n[6, 0]\n[6, 0]\n[6, 0]\n[6, 0]\n[6, 0]\n[6, 0]\n[6, 0]\n[6, 0]\n[6, 0]]"] ;
64 -> 65 ;
66 [label="X[17] <= 1.0\ngini = 0.0536\nsamples = 96\nvalue = [[22, 74]\n[96, 0]\n[96, 0]\n[96, 0]\n[96, 0]\n[96, 0]\n[96, 0]\n[96, 0]\n[91, 5]\n[80, 16]\n[95, 1]\n[96, 0]\n[96, 0]\n[96, 0]]"] ;
64 -> 66 ;
67 [label="X[0] <= 4.5\ngini = 0.044\nsamples = 91\nvalue = [[17, 74]\n[91, 0]\n[91, 0]\n[91, 0]\n[91, 0]\n[91, 0]\n[91, 0]\n[91, 0]\n[91, 0]\n[75, 16]\n[90, 1]\n[91, 0]\n[91, 0]\n[91, 0]]"] ;
66 -> 67 ;
68 [label="X[9] <= 1.5\ngini = 0.0718\nsamples = 28\nvalue = [[11, 17]\n[28, 0]\n[28, 0]\n[28, 0]\n[28, 0]\n[28, 0]\n[28, 0]\n[28, 0]\n[28, 0]\n[18, 10]\n[27, 1]\n[28, 0]\n[28, 0]\n[28, 0]]"] ;
67 -> 68 ;
69 [label="X[8] <= 0.5\ngini = 0.0785\nsamples = 18\nvalue = [[10, 8]\n[18, 0]\n[18, 0]\n[18, 0]\n[18, 0]\n[18, 0]\n[18, 0]\n[18, 0]\n[18, 0]\n[9, 9]\n[17, 1]\n[18, 0]\n[18, 0]\n[18, 0]]"] ;
68 -> 69 ;
70 [label="X[9] <= 0.5\ngini = 0.06\nsamples = 10\nvalue = [[3, 7]\n[10, 0]\n[10, 0]\n[10, 0]\n[10, 0]\n[10, 0]\n[10, 0]\n[10, 0]\n[10, 0]\n[7, 3]\n[10, 0]\n[10, 0]\n[10, 0]\n[10, 0]]"] ;
69 -> 70 ;
71 [label="gini = 0.0\nsamples = 5\nvalue = [[0, 5]\n[5, 0]\n[5, 0]\n[5, 0]\n[5, 0]\n[5, 0]\n[5, 0]\n[5, 0]\n[5, 0]\n[5, 0]\n[5, 0]\n[5, 0]\n[5, 0]\n[5, 0]]"] ;
70 -> 71 ;
72 [label="X[6] <= 1.5\ngini = 0.0686\nsamples = 5\nvalue = [[3, 2]\n[5, 0]\n[5, 0]\n[5, 0]\n[5, 0]\n[5, 0]\n[5, 0]\n[5, 0]\n[5, 0]\n[2, 3]\n[5, 0]\n[5, 0]\n[5, 0]\n[5, 0]]"] ;
70 -> 72 ;
73 [label="gini = 0.0\nsamples = 2\nvalue = [[2, 0]\n[2, 0]\n[2, 0]\n[2, 0]\n[2, 0]\n[2, 0]\n[2, 0]\n[2, 0]\n[2, 0]\n[0, 2]\n[2, 0]\n[2, 0]\n[2, 0]\n[2, 0]]"] ;
72 -> 73 ;
74 [label="X[5] <= 1.5\ngini = 0.0635\nsamples = 3\nvalue = [[1, 2]\n[3, 0]\n[3, 0]\n[3, 0]\n[3, 0]\n[3, 0]\n[3, 0]\n[3, 0]\n[3, 0]\n[2, 1]\n[3, 0]\n[3, 0]\n[3, 0]\n[3, 0]]"] ;
72 -> 74 ;
75 [label="gini = 0.0\nsamples = 1\nvalue = [[1, 0]\n[1, 0]\n[1, 0]\n[1, 0]\n[1, 0]\n[1, 0]\n[1, 0]\n[1, 0]\n[1, 0]\n[0, 1]\n[1, 0]\n[1, 0]\n[1, 0]\n[1, 0]]"] ;
74 -> 75 ;
76 [label="gini = 0.0\nsamples = 2\nvalue = [[0, 2]\n[2, 0]\n[2, 0]\n[2, 0]\n[2, 0]\n[2, 0]\n[2, 0]\n[2, 0]\n[2, 0]\n[2, 0]\n[2, 0]\n[2, 0]\n[2, 0]\n[2, 0]]"] ;
74 -> 76 ;
77 [label="X[15] <= 0.5\ngini = 0.058\nsamples = 8\nvalue = [[7, 1]\n[8, 0]\n[8, 0]\n[8, 0]\n[8, 0]\n[8, 0]\n[8, 0]\n[8, 0]\n[8, 0]\n[2, 6]\n[7, 1]\n[8, 0]\n[8, 0]\n[8, 0]]"] ;
69 -> 77 ;
78 [label="gini = 0.0\nsamples = 6\nvalue = [[6, 0]\n[6, 0]\n[6, 0]\n[6, 0]\n[6, 0]\n[6, 0]\n[6, 0]\n[6, 0]\n[6, 0]\n[0, 6]\n[6, 0]\n[6, 0]\n[6, 0]\n[6, 0]]"] ;
77 -> 78 ;
79 [label="X[1] <= 0.5\ngini = 0.0714\nsamples = 2\nvalue = [[1, 1]\n[2, 0]\n[2, 0]\n[2, 0]\n[2, 0]\n[2, 0]\n[2, 0]\n[2, 0]\n[2, 0]\n[2, 0]\n[1, 1]\n[2, 0]\n[2, 0]\n[2, 0]]"] ;
77 -> 79 ;
80 [label="gini = 0.0\nsamples = 1\nvalue = [[0, 1]\n[1, 0]\n[1, 0]\n[1, 0]\n[1, 0]\n[1, 0]\n[1, 0]\n[1, 0]\n[1, 0]\n[1, 0]\n[1, 0]\n[1, 0]\n[1, 0]\n[1, 0]]"] ;
79 -> 80 ;
81 [label="gini = 0.0\nsamples = 1\nvalue = [[1, 0]\n[1, 0]\n[1, 0]\n[1, 0]\n[1, 0]\n[1, 0]\n[1, 0]\n[1, 0]\n[1, 0]\n[1, 0]\n[0, 1]\n[1, 0]\n[1, 0]\n[1, 0]]"] ;
79 -> 81 ;
82 [label="X[6] <= 0.5\ngini = 0.0257\nsamples = 10\nvalue = [[1, 9]\n[10, 0]\n[10, 0]\n[10, 0]\n[10, 0]\n[10, 0]\n[10, 0]\n[10, 0]\n[10, 0]\n[9, 1]\n[10, 0]\n[10, 0]\n[10, 0]\n[10, 0]]"] ;
68 -> 82 ;
83 [label="X[29] <= 0.5\ngini = 0.0635\nsamples = 3\nvalue = [[1, 2]\n[3, 0]\n[3, 0]\n[3, 0]\n[3, 0]\n[3, 0]\n[3, 0]\n[3, 0]\n[3, 0]\n[2, 1]\n[3, 0]\n[3, 0]\n[3, 0]\n[3, 0]]"] ;
82 -> 83 ;
84 [label="X[8] <= 0.5\ngini = 0.0714\nsamples = 2\nvalue = [[1, 1]\n[2, 0]\n[2, 0]\n[2, 0]\n[2, 0]\n[2, 0]\n[2, 0]\n[2, 0]\n[2, 0]\n[1, 1]\n[2, 0]\n[2, 0]\n[2, 0]\n[2, 0]]"] ;
83 -> 84 ;
85 [label="gini = 0.0\nsamples = 1\nvalue = [[1, 0]\n[1, 0]\n[1, 0]\n[1, 0]\n[1, 0]\n[1, 0]\n[1, 0]\n[1, 0]\n[1, 0]\n[0, 1]\n[1, 0]\n[1, 0]\n[1, 0]\n[1, 0]]"] ;
84 -> 85 ;
86 [label="gini = 0.0\nsamples = 1\nvalue = [[0, 1]\n[1, 0]\n[1, 0]\n[1, 0]\n[1, 0]\n[1, 0]\n[1, 0]\n[1, 0]\n[1, 0]\n[1, 0]\n[1, 0]\n[1, 0]\n[1, 0]\n[1, 0]]"] ;
84 -> 86 ;
87 [label="gini = 0.0\nsamples = 1\nvalue = [[0, 1]\n[1, 0]\n[1, 0]\n[1, 0]\n[1, 0]\n[1, 0]\n[1, 0]\n[1, 0]\n[1, 0]\n[1, 0]\n[1, 0]\n[1, 0]\n[1, 0]\n[1, 0]]"] ;
83 -> 87 ;
88 [label="gini = 0.0\nsamples = 7\nvalue = [[0, 7]\n[7, 0]\n[7, 0]\n[7, 0]\n[7, 0]\n[7, 0]\n[7, 0]\n[7, 0]\n[7, 0]\n[7, 0]\n[7, 0]\n[7, 0]\n[7, 0]\n[7, 0]]"] ;
82 -> 88 ;
89 [label="X[27] <= 0.5\ngini = 0.0246\nsamples = 63\nvalue = [[6, 57]\n[63, 0]\n[63, 0]\n[63, 0]\n[63, 0]\n[63, 0]\n[63, 0]\n[63, 0]\n[63, 0]\n[57, 6]\n[63, 0]\n[63, 0]\n[63, 0]\n[63, 0]]"] ;
67 -> 89 ;
90 [label="X[3] <= 1.5\ngini = 0.0212\nsamples = 62\nvalue = [[5, 57]\n[62, 0]\n[62, 0]\n[62, 0]\n[62, 0]\n[62, 0]\n[62, 0]\n[62, 0]\n[62, 0]\n[57, 5]\n[62, 0]\n[62, 0]\n[62, 0]\n[62, 0]]"] ;
89 -> 90 ;
91 [label="X[15] <= 0.5\ngini = 0.0444\nsamples = 26\nvalue = [[5, 21]\n[26, 0]\n[26, 0]\n[26, 0]\n[26, 0]\n[26, 0]\n[26, 0]\n[26, 0]\n[26, 0]\n[21, 5]\n[26, 0]\n[26, 0]\n[26, 0]\n[26, 0]]"] ;
90 -> 91 ;
92 [label="X[4] <= 0.5\ngini = 0.0593\nsamples = 17\nvalue = [[5, 12]\n[17, 0]\n[17, 0]\n[17, 0]\n[17, 0]\n[17, 0]\n[17, 0]\n[17, 0]\n[17, 0]\n[12, 5]\n[17, 0]\n[17, 0]\n[17, 0]\n[17, 0]]"] ;
91 -> 92 ;
93 [label="X[7] <= 0.5\ngini = 0.0694\nsamples = 12\nvalue = [[5, 7]\n[12, 0]\n[12, 0]\n[12, 0]\n[12, 0]\n[12, 0]\n[12, 0]\n[12, 0]\n[12, 0]\n[7, 5]\n[12, 0]\n[12, 0]\n[12, 0]\n[12, 0]]"] ;
92 -> 93 ;
94 [label="X[6] <= 1.5\ngini = 0.06\nsamples = 10\nvalue = [[3, 7]\n[10, 0]\n[10, 0]\n[10, 0]\n[10, 0]\n[10, 0]\n[10, 0]\n[10, 0]\n[10, 0]\n[7, 3]\n[10, 0]\n[10, 0]\n[10, 0]\n[10, 0]]"] ;
93 -> 94 ;
95 [label="gini = 0.0\nsamples = 3\nvalue = [[0, 3]\n[3, 0]\n[3, 0]\n[3, 0]\n[3, 0]\n[3, 0]\n[3, 0]\n[3, 0]\n[3, 0]\n[3, 0]\n[3, 0]\n[3, 0]\n[3, 0]\n[3, 0]]"] ;
94 -> 95 ;
96 [label="X[1] <= 0.5\ngini = 0.07\nsamples = 7\nvalue = [[3, 4]\n[7, 0]\n[7, 0]\n[7, 0]\n[7, 0]\n[7, 0]\n[7, 0]\n[7, 0]\n[7, 0]\n[4, 3]\n[7, 0]\n[7, 0]\n[7, 0]\n[7, 0]]"] ;
94 -> 96 ;
97 [label="X[5] <= 2.5\ngini = 0.0536\nsamples = 4\nvalue = [[1, 3]\n[4, 0]\n[4, 0]\n[4, 0]\n[4, 0]\n[4, 0]\n[4, 0]\n[4, 0]\n[4, 0]\n[3, 1]\n[4, 0]\n[4, 0]\n[4, 0]\n[4, 0]]"] ;
96 -> 97 ;
98 [label="X[0] <= 5.5\ngini = 0.0714\nsamples = 2\nvalue = [[1, 1]\n[2, 0]\n[2, 0]\n[2, 0]\n[2, 0]\n[2, 0]\n[2, 0]\n[2, 0]\n[2, 0]\n[1, 1]\n[2, 0]\n[2, 0]\n[2, 0]\n[2, 0]]"] ;
97 -> 98 ;
99 [label="gini = 0.0\nsamples = 1\nvalue = [[0, 1]\n[1, 0]\n[1, 0]\n[1, 0]\n[1, 0]\n[1, 0]\n[1, 0]\n[1, 0]\n[1, 0]\n[1, 0]\n[1, 0]\n[1, 0]\n[1, 0]\n[1, 0]]"] ;
98 -> 99 ;
100 [label="gini = 0.0\nsamples = 1\nvalue = [[1, 0]\n[1, 0]\n[1, 0]\n[1, 0]\n[1, 0]\n[1, 0]\n[1, 0]\n[1, 0]\n[1, 0]\n[0, 1]\n[1, 0]\n[1, 0]\n[1, 0]\n[1, 0]]"] ;
98 -> 100 ;
101 [label="gini = 0.0\nsamples = 2\nvalue = [[0, 2]\n[2, 0]\n[2, 0]\n[2, 0]\n[2, 0]\n[2, 0]\n[2, 0]\n[2, 0]\n[2, 0]\n[2, 0]\n[2, 0]\n[2, 0]\n[2, 0]\n[2, 0]]"] ;
97 -> 101 ;
102 [label="X[5] <= 2.5\ngini = 0.0635\nsamples = 3\nvalue = [[2, 1]\n[3, 0]\n[3, 0]\n[3, 0]\n[3, 0]\n[3, 0]\n[3, 0]\n[3, 0]\n[3, 0]\n[1, 2]\n[3, 0]\n[3, 0]\n[3, 0]\n[3, 0]]"] ;
96 -> 102 ;
103 [label="gini = 0.0\nsamples = 1\nvalue = [[0, 1]\n[1, 0]\n[1, 0]\n[1, 0]\n[1, 0]\n[1, 0]\n[1, 0]\n[1, 0]\n[1, 0]\n[1, 0]\n[1, 0]\n[1, 0]\n[1, 0]\n[1, 0]]"] ;
102 -> 103 ;
104 [label="gini = 0.0\nsamples = 2\nvalue = [[2, 0]\n[2, 0]\n[2, 0]\n[2, 0]\n[2, 0]\n[2, 0]\n[2, 0]\n[2, 0]\n[2, 0]\n[0, 2]\n[2, 0]\n[2, 0]\n[2, 0]\n[2, 0]]"] ;
102 -> 104 ;
105 [label="gini = 0.0\nsamples = 2\nvalue = [[2, 0]\n[2, 0]\n[2, 0]\n[2, 0]\n[2, 0]\n[2, 0]\n[2, 0]\n[2, 0]\n[2, 0]\n[0, 2]\n[2, 0]\n[2, 0]\n[2, 0]\n[2, 0]]"] ;
93 -> 105 ;
106 [label="gini = 0.0\nsamples = 5\nvalue = [[0, 5]\n[5, 0]\n[5, 0]\n[5, 0]\n[5, 0]\n[5, 0]\n[5, 0]\n[5, 0]\n[5, 0]\n[5, 0]\n[5, 0]\n[5, 0]\n[5, 0]\n[5, 0]]"] ;
92 -> 106 ;
107 [label="gini = 0.0\nsamples = 9\nvalue = [[0, 9]\n[9, 0]\n[9, 0]\n[9, 0]\n[9, 0]\n[9, 0]\n[9, 0]\n[9, 0]\n[9, 0]\n[9, 0]\n[9, 0]\n[9, 0]\n[9, 0]\n[9, 0]]"] ;
91 -> 107 ;
108 [label="gini = 0.0\nsamples = 36\nvalue = [[0, 36]\n[36, 0]\n[36, 0]\n[36, 0]\n[36, 0]\n[36, 0]\n[36, 0]\n[36, 0]\n[36, 0]\n[36, 0]\n[36, 0]\n[36, 0]\n[36, 0]\n[36, 0]]"] ;
90 -> 108 ;
109 [label="gini = 0.0\nsamples = 1\nvalue = [[1, 0]\n[1, 0]\n[1, 0]\n[1, 0]\n[1, 0]\n[1, 0]\n[1, 0]\n[1, 0]\n[1, 0]\n[0, 1]\n[1, 0]\n[1, 0]\n[1, 0]\n[1, 0]]"] ;
89 -> 109 ;
110 [label="gini = 0.0\nsamples = 5\nvalue = [[5, 0]\n[5, 0]\n[5, 0]\n[5, 0]\n[5, 0]\n[5, 0]\n[5, 0]\n[5, 0]\n[0, 5]\n[5, 0]\n[5, 0]\n[5, 0]\n[5, 0]\n[5, 0]]"] ;
66 -> 110 ;
111 [label="X[14] <= 0.5\ngini = 0.0968\nsamples = 29\nvalue = [[29, 0]\n[29, 0]\n[29, 0]\n[29, 0]\n[18, 11]\n[24, 5]\n[29, 0]\n[29, 0]\n[29, 0]\n[27, 2]\n[29, 0]\n[29, 0]\n[18, 11]\n[29, 0]]"] ;
63 -> 111 ;
112 [label="gini = 0.0\nsamples = 11\nvalue = [[11, 0]\n[11, 0]\n[11, 0]\n[11, 0]\n[11, 0]\n[11, 0]\n[11, 0]\n[11, 0]\n[11, 0]\n[11, 0]\n[11, 0]\n[11, 0]\n[0, 11]\n[11, 0]]"] ;
111 -> 112 ;
113 [label="X[20] <= 1.5\ngini = 0.0767\nsamples = 18\nvalue = [[18, 0]\n[18, 0]\n[18, 0]\n[18, 0]\n[7, 11]\n[13, 5]\n[18, 0]\n[18, 0]\n[18, 0]\n[16, 2]\n[18, 0]\n[18, 0]\n[18, 0]\n[18, 0]]"] ;
111 -> 113 ;
114 [label="gini = 0.0\nsamples = 5\nvalue = [[5, 0]\n[5, 0]\n[5, 0]\n[5, 0]\n[5, 0]\n[0, 5]\n[5, 0]\n[5, 0]\n[5, 0]\n[5, 0]\n[5, 0]\n[5, 0]\n[5, 0]\n[5, 0]]"] ;
113 -> 114 ;
115 [label="X[7] <= 0.5\ngini = 0.0372\nsamples = 13\nvalue = [[13, 0]\n[13, 0]\n[13, 0]\n[13, 0]\n[2, 11]\n[13, 0]\n[13, 0]\n[13, 0]\n[13, 0]\n[11, 2]\n[13, 0]\n[13, 0]\n[13, 0]\n[13, 0]]"] ;
113 -> 115 ;
116 [label="gini = 0.0\nsamples = 2\nvalue = [[2, 0]\n[2, 0]\n[2, 0]\n[2, 0]\n[2, 0]\n[2, 0]\n[2, 0]\n[2, 0]\n[2, 0]\n[0, 2]\n[2, 0]\n[2, 0]\n[2, 0]\n[2, 0]]"] ;
115 -> 116 ;
117 [label="gini = 0.0\nsamples = 11\nvalue = [[11, 0]\n[11, 0]\n[11, 0]\n[11, 0]\n[0, 11]\n[11, 0]\n[11, 0]\n[11, 0]\n[11, 0]\n[11, 0]\n[11, 0]\n[11, 0]\n[11, 0]\n[11, 0]]"] ;
115 -> 117 ;
118 [label="X[7] <= 1.5\ngini = 0.0282\nsamples = 45\nvalue = [[45, 0]\n[45, 0]\n[45, 0]\n[45, 0]\n[40, 5]\n[45, 0]\n[45, 0]\n[45, 0]\n[45, 0]\n[5, 40]\n[45, 0]\n[45, 0]\n[45, 0]\n[45, 0]]"] ;
22 -> 118 ;
119 [label="gini = 0.0\nsamples = 40\nvalue = [[40, 0]\n[40, 0]\n[40, 0]\n[40, 0]\n[40, 0]\n[40, 0]\n[40, 0]\n[40, 0]\n[40, 0]\n[0, 40]\n[40, 0]\n[40, 0]\n[40, 0]\n[40, 0]]"] ;
118 -> 119 ;
120 [label="gini = 0.0\nsamples = 5\nvalue = [[5, 0]\n[5, 0]\n[5, 0]\n[5, 0]\n[0, 5]\n[5, 0]\n[5, 0]\n[5, 0]\n[5, 0]\n[5, 0]\n[5, 0]\n[5, 0]\n[5, 0]\n[5, 0]]"] ;
118 -> 120 ;
}
